{"learner":{"attributes":{"scikit_learn":"{\"_estimator_type\": \"classifier\"}"},"feature_names":["age","sex","cp","trestbps","chol","fbs","restecg","thalach","exang","oldpeak","slope","ca","thal"],"feature_types":["float","float","float","float","float","float","float","float","float","float","float","float","float"],"gradient_booster":{"model":{"cats":{"enc":[],"feature_segments":[],"sorted_idx":[]},"gbtree_model_param":{"num_parallel_tree":"1","num_trees":"10"},"iteration_indptr":[0,1,2,3,4,5,6,7,8,9,10],"tree_info":[0,0,0,0,0,0,0,0,0,0],"trees":[{"base_weights":[-0E0,-1.0409338E0,8.674979E-1,-7.830342E-2,-1.9282396E0,1.0813525E0,-1.44366E0,1.05491E0,-1.2704262E0,-1.0777553E0,-2.1217177E0,1.4557399E0,3.668161E-1,-5.193002E-2,-2.1384566E-1,1.5941436E0,-4.2868517E-2,-0E0,-1.9541453E0,-1.3209901E-2,-2.1222423E-1,-2.2078542E-1,-1.4696707E-1,1.6258742E0,6.346531E-1,1.1909847E0,-3.64909E-1,1.7855415E-1,1.0717155E-1,-1.3207713E-1,-2.1791828E-1,9.2237514E-1,1.810194E-1,-5.193002E-2,1.3198794E-1,3.034941E-3,1.7829335E-1,2.6849862E-2,-1.4696707E-1,1.7405014E-1,2.5287567E-2,1.7248186E-1,-7.1185075E-2],"categories":[],"categories_nodes":[],"categories_segments":[],"categories_sizes":[],"default_left":[0,0,0,0,0,0,0,0,0,0,0,0,0,0,0,0,0,0,0,0,0,0,0,0,0,0,0,0,0,0,0,0,0,0,0,0,0,0,0,0,0,0,0],"id":0,"left_children":[1,3,5,7,9,11,13,15,17,19,21,23,25,-1,-1,27,-1,-1,29,-1,-1,-1,-1,31,33,35,37,-1,-1,-1,-1,39,-1,-1,-1,-1,-1,41,-1,-1,-1,-1,-1],"loss_changes":[5.4112717E1,2.3064411E1,1.6134201E1,1.7772226E1,1.9806061E0,7.827774E0,1.4783359E0,5.478298E0,5.7041254E0,2.4711697E0,2.3990631E-1,2.4968681E0,6.3628855E0,0E0,0E0,1.9117737E-1,0E0,0E0,2.2245407E-1,0E0,0E0,0E0,0E0,1.7977371E0,2.8351166E0,3.2263985E0,2.5059934E0,0E0,0E0,0E0,0E0,1.6999557E0,0E0,0E0,0E0,0E0,0E0,5.0939345E0,0E0,0E0,0E0,0E0,0E0],"parents":[2147483647,0,0,1,1,2,2,3,3,4,4,5,5,6,6,7,7,8,8,9,9,10,10,11,11,12,12,15,15,18,18,23,23,24,24,25,25,26,26,31,31,37,37],"right_children":[2,4,6,8,10,12,14,16,18,20,22,24,26,-1,-1,28,-1,-1,30,-1,-1,-1,-1,32,34,36,38,-1,-1,-1,-1,40,-1,-1,-1,-1,-1,42,-1,-1,-1,-1,-1],"split_conditions":[3.3333334E-1,2.5E-1,3.5714287E-1,1E0,1E0,5.833333E-1,2.5E-1,1E0,1.4285715E-1,1E0,1.0405828E-3,1E0,1E0,-5.193002E-2,-2.1384566E-1,6.458333E-1,-4.2868517E-2,-0E0,1E0,-1.3209901E-2,-2.1222423E-1,-2.2078542E-1,-1.4696707E-1,5.701754E-1,4.5833334E-1,7.083333E-1,2.7204797E-1,1.7855415E-1,1.0717155E-1,-1.3207713E-1,-2.1791828E-1,1E0,1.810194E-1,-5.193002E-2,1.3198794E-1,3.034941E-3,1.7829335E-1,5.1754385E-1,-1.4696707E-1,1.7405014E-1,2.5287567E-2,1.7248186E-1,-7.1185075E-2],"split_indices":[2,11,9,8,1,0,11,12,9,12,5,12,1,0,0,0,0,0,12,0,0,0,0,7,0,0,4,0,0,0,0,1,0,0,0,0,0,7,0,0,0,0,0],"split_type":[0,0,0,0,0,0,0,0,0,0,0,0,0,0,0,0,0,0,0,0,0,0,0,0,0,0,0,0,0,0,0,0,0,0,0,0,0,0,0,0,0,0,0],"sum_hessian":[5.990496E1,2.7229528E1,3.2675434E1,1.3119681E1,1.4109846E1,2.995248E1,2.7229528E0,6.6836114E0,6.43607E0,2.7229528E0,1.1386893E1,1.9555752E1,1.03967285E1,1.2377058E0,1.4852469E0,4.9508233E0,1.7327881E0,2.2278705E0,4.2081995E0,1.4852469E0,1.2377058E0,9.901647E0,1.4852469E0,1.6090176E1,3.4655762E0,4.9508233E0,5.4459057E0,3.4655762E0,1.4852469E0,1.2377058E0,2.9704938E0,3.4655762E0,1.2624599E1,1.2377058E0,2.2278705E0,1.7327881E0,3.218035E0,3.9606586E0,1.4852469E0,1.4852469E0,1.9803293E0,1.2377058E0,2.7229528E0],"tree_param":{"num_deleted":"0","num_feature":"13","num_nodes":"43","size_leaf_vector":"1"}},{"base_weights":[-0E0,7.2228605E-1,-1.0451235E0,1.1996183E0,-6.7229575E-1,-1.7214304E0,-7.705243E-2,1.4258559E0,3.0859393E-1,9.195181E-2,-1.7571362E0,-9.6879756E-1,-1.890909E0,-1.173377E0,6.968141E-1,1.5483574E0,-1.032618E-2,-7.750591E-2,1.1019653E0,1.7024793E-1,-5.227894E-1,-1.9773266E-1,-1.2214905E-1,-1.1881957E-2,-1.891726E-1,-1.9664834E-1,-1.3108371E-1,-1.2981792E-2,-1.6990602E0,2.295511E-2,1.3384188E0,1.6376014E-1,1.0069009E0,1.6718099E-1,1.1346434E-2,2.4340052E-2,-1.4435348E-1,-1.2432249E-1,-1.9998495E-1,-8.4630065E-2,9.671038E-2,1.6492018E-1,8.120199E-2,4.065638E-3,1.6389775E-1],"categories":[],"categories_nodes":[],"categories_segments":[],"categories_sizes":[],"default_left":[0,0,0,0,0,0,0,0,0,0,0,0,0,0,0,0,0,0,0,0,0,0,0,0,0,0,0,0,0,0,0,0,0,0,0,0,0,0,0,0,0,0,0,0,0],"id":1,"left_children":[1,3,5,7,9,11,13,15,17,19,21,23,25,27,29,31,-1,-1,33,-1,35,-1,-1,-1,-1,-1,-1,-1,37,39,41,-1,43,-1,-1,-1,-1,-1,-1,-1,-1,-1,-1,-1,-1],"loss_changes":[4.4921944E1,2.3511898E1,1.5728762E1,5.124317E0,7.577047E0,1.5127182E0,8.595703E0,4.058132E0,4.708201E0,5.2734027E0,9.802055E-2,1.9516923E0,1.5097427E-1,2.1311846E0,2.394299E0,6.563263E-1,0E0,0E0,1.6172254E0,0E0,2.7513134E0,0E0,0E0,0E0,0E0,0E0,0E0,0E0,2.6966572E-2,2.4340901E0,2.185607E-1,0E0,1.6202955E0,0E0,0E0,0E0,0E0,0E0,0E0,0E0,0E0,0E0,0E0,0E0,0E0],"parents":[2147483647,0,0,1,1,2,2,3,3,4,4,5,5,6,6,7,7,8,8,9,9,10,10,11,11,12,12,13,13,14,14,15,15,18,18,20,20,28,28,29,29,30,30,32,32],"right_children":[2,4,6,8,10,12,14,16,18,20,22,24,26,28,30,32,-1,-1,34,-1,36,-1,-1,-1,-1,-1,-1,-1,38,40,42,-1,44,-1,-1,-1,-1,-1,-1,-1,-1,-1,-1,-1,-1],"split_conditions":[2.5E-1,1E0,3.3333334E-1,1E0,2.857143E-1,1E0,1E0,3.2142857E-1,4.1666666E-1,1.1316119E-1,5.625E-1,1E0,1.0405828E-3,8.928572E-2,5E-1,6.666667E-1,-1.032618E-2,-7.750591E-2,1.544682E-1,1.7024793E-1,1E0,-1.9773266E-1,-1.2214905E-1,-1.1881957E-2,-1.891726E-1,-1.9664834E-1,-1.3108371E-1,-1.2981792E-2,1.9080095E-1,1.5599692E-1,5E-1,1.6376014E-1,1.7857144E-2,1.6718099E-1,1.1346434E-2,2.4340052E-2,-1.4435348E-1,-1.2432249E-1,-1.9998495E-1,-8.4630065E-2,9.671038E-2,1.6492018E-1,8.120199E-2,4.065638E-3,1.6389775E-1],"split_indices":[11,8,2,12,9,1,10,9,0,3,0,12,5,9,6,0,0,0,3,0,12,0,0,0,0,0,0,0,3,4,11,0,9,0,0,0,0,0,0,0,0,0,0,0,0],"split_type":[0,0,0,0,0,0,0,0,0,0,0,0,0,0,0,0,0,0,0,0,0,0,0,0,0,0,0,0,0,0,0,0,0,0,0,0,0,0,0,0,0,0,0,0,0],"sum_hessian":[5.9509464E1,3.5218838E1,2.4290623E1,2.6292606E1,8.926232E0,1.4234874E1,1.0055749E1,2.0874252E1,5.4183545E0,5.1882157E0,3.738017E0,2.737075E0,1.1497799E1,4.2123036E0,5.8434453E0,1.9386427E1,1.4878252E0,2.2370248E0,3.1813295E0,1.4733199E0,3.7148957E0,2.4976797E0,1.2403375E0,1.4871297E0,1.2499454E0,9.998814E0,1.4989852E0,1.478989E0,2.7333143E0,2.9311547E0,2.9122906E0,1.646732E1,2.9191077E0,1.9494485E0,1.2318811E0,1.9723617E0,1.742534E0,1.2391768E0,1.4941376E0,1.4714998E0,1.4596548E0,1.6983153E0,1.2139754E0,1.2211733E0,1.6979343E0],"tree_param":{"num_deleted":"0","num_feature":"13","num_nodes":"45","size_leaf_vector":"1"}},{"base_weights":[-0E0,6.659161E-1,-9.5100296E-1,1.1111598E0,-6.092465E-1,-1.5666583E0,-6.928954E-2,1.325644E0,2.817365E-1,8.4273875E-2,-1.5917176E0,-8.8014376E-1,-1.7214205E0,-1.0608916E0,6.400498E-1,1.4435365E0,-9.292185E-3,-6.946685E-2,1.0175221E0,1.19712725E-1,-6.954113E-1,-1.0477823E-1,-1.8177174E-1,-1.068973E-2,-1.7220317E-1,-1.2567267E-1,-1.8071783E-1,-1.1677448E-2,-1.5335484E0,1.7971681E-2,1.2421777E0,1.5289403E-1,9.302606E-1,7.274158E-3,1.5712483E-1,-1.4437605E-1,2.7864436E-2,-1.8880436E-1,-1.1580242E-1,-7.55729E-2,8.872724E-2,1.5387869E-1,7.428197E-2,1.8347809E-3,1.5396363E-1],"categories":[],"categories_nodes":[],"categories_segments":[],"categories_sizes":[],"default_left":[0,0,0,0,0,0,0,0,0,0,0,0,0,0,0,0,0,0,0,0,0,0,0,0,0,0,0,0,0,0,0,0,0,0,0,0,0,0,0,0,0,0,0,0,0],"id":2,"left_children":[1,3,5,7,9,11,13,15,17,19,21,23,25,27,29,31,-1,-1,33,-1,35,-1,-1,-1,-1,-1,-1,-1,37,39,41,-1,43,-1,-1,-1,-1,-1,-1,-1,-1,-1,-1,-1,-1],"loss_changes":[3.707822E1,1.9639862E1,1.2909702E1,4.394491E0,6.1990643E0,1.2243996E0,7.0687757E0,3.5251389E0,3.9000602E0,4.528998E0,1.5324211E-1,1.5963669E0,1.2477493E-1,1.7183657E0,2.0333982E0,5.6282806E-1,0E0,0E0,1.470341E0,0E0,2.2950425E0,0E0,0E0,0E0,0E0,0E0,0E0,0E0,3.8785458E-2,1.9889468E0,1.8223238E-1,0E0,1.4391792E0,0E0,0E0,0E0,0E0,0E0,0E0,0E0,0E0,0E0,0E0,0E0,0E0],"parents":[2147483647,0,0,1,1,2,2,3,3,4,4,5,5,6,6,7,7,8,8,9,9,10,10,11,11,12,12,13,13,14,14,15,15,18,18,20,20,28,28,29,29,30,30,32,32],"right_children":[2,4,6,8,10,12,14,16,18,20,22,24,26,28,30,32,-1,-1,34,-1,36,-1,-1,-1,-1,-1,-1,-1,38,40,42,-1,44,-1,-1,-1,-1,-1,-1,-1,-1,-1,-1,-1,-1],"split_conditions":[2.5E-1,1E0,3.3333334E-1,1E0,2.857143E-1,1E0,1E0,3.2142857E-1,4.1666666E-1,1.7598535E-1,1.6876462E-1,1E0,5E-1,8.928572E-2,5E-1,6.666667E-1,-9.292185E-3,-6.946685E-2,5.5263156E-1,1.19712725E-1,1E0,-1.0477823E-1,-1.8177174E-1,-1.068973E-2,-1.7220317E-1,-1.2567267E-1,-1.8071783E-1,-1.1677448E-2,2.6785713E-1,1.5599692E-1,5E-1,1.5289403E-1,7.5E-1,7.274158E-3,1.5712483E-1,-1.4437605E-1,2.7864436E-2,-1.8880436E-1,-1.1580242E-1,-7.55729E-2,8.872724E-2,1.5387869E-1,7.428197E-2,1.8347809E-3,1.5396363E-1],"split_indices":[11,8,2,12,9,1,10,9,0,3,3,12,0,9,6,0,0,0,7,0,1,0,0,0,0,0,0,0,9,4,11,0,0,0,0,0,0,0,0,0,0,0,0,0,0],"split_type":[0,0,0,0,0,0,0,0,0,0,0,0,0,0,0,0,0,0,0,0,0,0,0,0,0,0,0,0,0,0,0,0,0,0,0,0,0,0,0,0,0,0,0,0,0],"sum_hessian":[5.855715E1,3.4481625E1,2.4075525E1,2.5616808E1,8.864817E0,1.410532E1,9.970206E0,2.0252958E1,5.3638496E0,5.142275E0,3.722542E0,2.7260008E0,1.1379319E1,4.2145743E0,5.7556314E0,1.8763872E1,1.4890875E0,2.2468612E0,3.1169887E0,2.16914E0,2.9731345E0,1.2391062E0,2.4834359E0,1.4887152E0,1.2372856E0,1.9789003E0,9.400418E0,1.4807875E0,2.7337866E0,2.9176686E0,2.837963E0,1.5903136E1,2.8607347E0,1.222699E0,1.8942895E0,1.7367007E0,1.236434E0,1.2485666E0,1.4852201E0,1.4835454E0,1.4341232E0,1.6417329E0,1.1962302E0,1.2157717E0,1.644963E0],"tree_param":{"num_deleted":"0","num_feature":"13","num_nodes":"45","size_leaf_vector":"1"}},{"base_weights":[-0E0,6.182235E-1,-8.7449974E-1,1.0891175E0,-4.5325592E-1,-1.4451194E0,-6.272441E-2,1.2159132E0,-1.0896204E-1,6.8683976E-1,-1.091845E0,-8.597897E-1,-1.6260091E0,-9.666622E-1,5.908048E-1,1.5228386E-1,8.30114E-1,1.29395E-1,-1.7951451E-2,-0E0,-1.6240162E0,-1.638572E-1,-2.1274926E-3,-1.722326E-1,-1.3018814E0,-1.8425928E-1,-4.4338185E-1,1.2066672E0,4.083012E-2,-4.3852865E-3,1.0149894E0,-1.8014586E-1,-1.0565666E-1,-1.5961635E-1,-8.58336E-2,2.9087663E-2,-1.1128365E-1,1.5555072E-1,6.904444E-2,-1.0988643E-1,1.4933373E-1,1.2705025E-1,3.146949E-2],"categories":[],"categories_nodes":[],"categories_segments":[],"categories_sizes":[],"default_left":[0,0,0,0,0,0,0,0,0,0,0,0,0,0,0,0,0,0,0,0,0,0,0,0,0,0,0,0,0,0,0,0,0,0,0,0,0,0,0,0,0,0,0],"id":3,"left_children":[1,3,5,7,9,11,13,15,-1,17,19,21,23,25,27,-1,29,-1,-1,-1,31,-1,-1,-1,33,-1,35,37,39,-1,41,-1,-1,-1,-1,-1,-1,-1,-1,-1,-1,-1,-1],"loss_changes":[3.0907257E1,1.6997501E1,1.0801634E1,6.4837303E0,7.4638996E0,1.1999493E0,5.858299E0,2.3735733E0,0E0,2.010899E0,3.7567286E0,2.0622241E0,1.5258789E-4,1.6876011E0,1.790163E0,0E0,1.7093425E0,0E0,0E0,0E0,1.3846493E-1,0E0,0E0,0E0,8.8523865E-2,0E0,1.418972E0,2.2955513E-1,5.160219E0,0E0,1.3277493E0,0E0,0E0,0E0,0E0,0E0,0E0,0E0,0E0,0E0,0E0,0E0,0E0],"parents":[2147483647,0,0,1,1,2,2,3,3,4,4,5,5,6,6,7,7,9,9,10,10,11,11,12,12,13,13,14,14,16,16,20,20,24,24,26,26,27,27,28,28,30,30],"right_children":[2,4,6,8,10,12,14,16,-1,18,20,22,24,26,28,-1,30,-1,-1,-1,32,-1,-1,-1,34,-1,36,38,40,-1,42,-1,-1,-1,-1,-1,-1,-1,-1,-1,-1,-1,-1],"split_conditions":[2.5E-1,1E0,3.3333334E-1,4.2857143E-1,1.5642123E-1,7.1428575E-2,1E0,1.8468723E-1,-1.0896204E-1,1.6071428E-1,1.4285715E-1,1.16661005E-1,7.291667E-1,1.8229166E-1,5.208333E-1,1.5228386E-1,1.9667712E-1,1.29395E-1,-1.7951451E-2,-0E0,3.917749E-1,-1.638572E-1,-2.1274926E-3,-1.722326E-1,4.2264155E-1,-1.8425928E-1,2.4512547E-1,1.0035937E-1,6.458333E-1,-4.3852865E-3,6.1403507E-1,-1.8014586E-1,-1.0565666E-1,-1.5961635E-1,-8.58336E-2,2.9087663E-2,-1.1128365E-1,1.5555072E-1,6.904444E-2,-1.0988643E-1,1.4933373E-1,1.2705025E-1,3.146949E-2],"split_indices":[11,12,2,9,4,9,10,4,0,9,9,3,0,4,0,0,4,0,0,0,4,0,0,0,4,0,4,3,0,0,7,0,0,0,0,0,0,0,0,0,0,0,0],"split_type":[0,0,0,0,0,0,0,0,0,0,0,0,0,0,0,0,0,0,0,0,0,0,0,0,0,0,0,0,0,0,0,0,0,0,0,0,0,0,0,0,0,0,0],"sum_hessian":[5.7178726E1,3.354241E1,2.3636314E1,2.3366472E1,1.0175939E1,1.3802889E1,9.8334255E0,2.2128956E1,1.2375169E0,3.5969055E0,6.5790334E0,3.4026914E0,1.0400198E1,4.188403E0,5.645023E0,1.2163507E1,9.965447E0,2.1798413E0,1.4170641E0,2.1863804E0,4.392653E0,1.6974039E0,1.7052873E0,7.746586E0,2.653612E0,1.4854915E0,2.7029116E0,2.571588E0,3.0734346E0,1.646871E0,8.318577E0,3.195455E0,1.1971982E0,1.4440657E0,1.2095463E0,1.2205217E0,1.4823898E0,1.4069724E0,1.1646156E0,1.684947E0,1.3884876E0,5.9842086E0,2.3343682E0],"tree_param":{"num_deleted":"0","num_feature":"13","num_nodes":"43","size_leaf_vector":"1"}},{"base_weights":[-0E0,-7.5222194E-1,6.471126E-1,-9.83387E-2,-1.3438072E0,8.1957996E-1,-1.055569E0,7.599349E-1,-9.4425285E-1,-6.863436E-1,-1.4962531E0,1.1332585E0,2.565109E-1,-3.1926602E-2,-1.614363E-1,1.223835E0,-3.5306524E-2,-1.3560015E0,1.1208691E-2,-0E0,-1.482954E-1,-1.5753616E-1,-9.086991E-2,2.2350537E-2,1.2491921E0,9.234756E-1,-2.9442018E-1,6.2603906E-2,1.442579E-1,-8.615677E-2,-1.6781408E-1,1.3755903E0,7.019951E-1,-0E0,1.4773683E-1,8.987427E-2,-1.3677184E-1,6.646702E-2,1.4518736E-1,1.5075824E-1,-0E0,1.0766839E-1,-6.277129E-2],"categories":[],"categories_nodes":[],"categories_segments":[],"categories_sizes":[],"default_left":[0,0,0,0,0,0,0,0,0,0,0,0,0,0,0,0,0,0,0,0,0,0,0,0,0,0,0,0,0,0,0,0,0,0,0,0,0,0,0,0,0,0,0],"id":4,"left_children":[1,3,5,7,9,11,13,15,17,19,21,23,25,-1,-1,27,-1,29,-1,-1,-1,-1,-1,-1,31,33,35,-1,-1,-1,-1,37,39,-1,-1,41,-1,-1,-1,-1,-1,-1,-1],"loss_changes":[2.7098705E1,9.806049E0,8.780203E0,8.963526E0,1.1170654E0,4.6719112E0,9.147377E-1,3.2190597E0,2.8500462E0,1.3214055E0,2.3770905E-1,1.6837254E0,3.695324E0,0E0,0E0,3.5177994E-1,0E0,4.6032906E-1,0E0,0E0,0E0,0E0,0E0,0E0,8.4230995E-1,2.446167E0,2.3295217E0,0E0,0E0,0E0,0E0,4.450779E-1,1.6481278E0,0E0,0E0,2.7915494E0,0E0,0E0,0E0,0E0,0E0,0E0,0E0],"parents":[2147483647,0,0,1,1,2,2,3,3,4,4,5,5,6,6,7,7,8,8,9,9,10,10,11,11,12,12,15,15,17,17,24,24,25,25,26,26,31,31,32,32,35,35],"right_children":[2,4,6,8,10,12,14,16,18,20,22,24,26,-1,-1,28,-1,30,-1,-1,-1,-1,-1,-1,32,34,36,-1,-1,-1,-1,38,40,-1,-1,42,-1,-1,-1,-1,-1,-1,-1],"split_conditions":[3.3333334E-1,2.5E-1,3.5714287E-1,1E0,1E0,5.833333E-1,2.5E-1,1E0,1E0,1E0,1.0405828E-3,4.8245615E-1,1E0,-3.1926602E-2,-1.614363E-1,9.382016E-2,-3.5306524E-2,2.3148912E-1,1.1208691E-2,-0E0,-1.482954E-1,-1.5753616E-1,-9.086991E-2,2.2350537E-2,1E0,7.083333E-1,6.1403507E-1,6.2603906E-2,1.442579E-1,-8.615677E-2,-1.6781408E-1,5.701754E-1,6.5789473E-1,-0E0,1.4773683E-1,1.8417814E-1,-1.3677184E-1,6.646702E-2,1.4518736E-1,1.5075824E-1,-0E0,1.0766839E-1,-6.277129E-2],"split_indices":[2,11,9,8,1,0,11,12,10,12,5,7,1,0,0,3,0,3,0,0,0,0,0,0,12,0,7,0,0,0,0,7,7,0,0,3,0,0,0,0,0,0,0],"split_type":[0,0,0,0,0,0,0,0,0,0,0,0,0,0,0,0,0,0,0,0,0,0,0,0,0,0,0,0,0,0,0,0,0,0,0,0,0,0,0,0,0,0,0],"sum_hessian":[5.5656563E1,2.571614E1,2.9940424E1,1.2300744E1,1.3415397E1,2.7244684E1,2.6957402E0,6.0475926E0,6.2531514E0,2.6589515E0,1.0756445E1,1.737665E1,9.868033E0,1.247122E0,1.448618E0,4.331196E0,1.716397E0,4.5654306E0,1.6877208E0,1.496381E0,1.1625706E0,9.315231E0,1.4412136E0,2.0648932E0,1.5311757E1,4.542984E0,5.3250494E0,1.2931042E0,3.0380914E0,1.9380277E0,2.627403E0,1.2277796E1,3.0339618E0,1.6532619E0,2.889722E0,3.8592403E0,1.4658092E0,1.3262136E0,1.0951582E1,1.3751537E0,1.6588081E0,1.6813868E0,2.1778536E0],"tree_param":{"num_deleted":"0","num_feature":"13","num_nodes":"43","size_leaf_vector":"1"}},{"base_weights":[-0E0,-7.01375E-1,6.0388E-1,-8.951458E-2,-1.2619526E0,7.6642704E-1,-9.74135E-1,7.086322E-1,-8.660693E-1,-6.9214165E-1,-1.4414746E0,1.028647E0,1.5390752E-1,-2.8766228E-2,-1.5089166E-1,1.1588527E0,-3.1739112E-2,-0E0,-1.356818E0,-1.4672701E-1,-0E0,-1.5378466E-1,-1.1168934E0,1.2263825E0,3.366233E-1,-5.723724E-1,5.8863366E-1,5.7773896E-2,1.376776E-1,-8.765396E-2,-1.5275793E-1,-1.4119676E-1,-6.800819E-2,1.3935463E-1,9.5199126E-1,1.1731085E0,-8.608083E-2,-1.1129268E-1,-1.1759254E-2,1.3937826E-1,1.5313198E-1,1.4005665E-1,3.36165E-2,1.533532E-1,6.3797265E-2,-6.2367212E-2,9.108069E-2],"categories":[],"categories_nodes":[],"categories_segments":[],"categories_sizes":[],"default_left":[0,0,0,0,0,0,0,0,0,0,0,0,0,0,0,0,0,0,0,0,0,0,0,0,0,0,0,0,0,0,0,0,0,0,0,0,0,0,0,0,0,0,0,0,0,0,0],"id":5,"left_children":[1,3,5,7,9,11,13,15,17,19,21,23,25,-1,-1,27,-1,-1,29,-1,-1,-1,31,33,35,37,39,-1,-1,-1,-1,-1,-1,-1,41,43,-1,-1,-1,-1,45,-1,-1,-1,-1,-1,-1],"loss_changes":[2.283664E1,8.413459E0,7.424592E0,7.468369E0,1.0985451E0,4.1127625E0,7.906704E-1,2.797893E0,2.685543E0,1.888256E0,2.026558E-2,2.34873E0,2.5389867E0,0E0,0E0,3.21815E-1,0E0,0E0,7.1591854E-2,0E0,0E0,0E0,1.02273226E-1,4.010105E-1,4.2494307E0,5.944781E-1,1.6355437E0,0E0,0E0,0E0,0E0,0E0,0E0,0E0,1.3722444E0,2.6042414E-1,0E0,0E0,0E0,0E0,2.0409076E0,0E0,0E0,0E0,0E0,0E0,0E0],"parents":[2147483647,0,0,1,1,2,2,3,3,4,4,5,5,6,6,7,7,8,8,9,9,10,10,11,11,12,12,15,15,18,18,22,22,23,23,24,24,25,25,26,26,34,34,35,35,40,40],"right_children":[2,4,6,8,10,12,14,16,18,20,22,24,26,-1,-1,28,-1,-1,30,-1,-1,-1,32,34,36,38,40,-1,-1,-1,-1,-1,-1,-1,42,44,-1,-1,-1,-1,46,-1,-1,-1,-1,-1,-1],"split_conditions":[3.3333334E-1,2.5E-1,3.5714287E-1,1E0,7.1428575E-2,2.5E-1,2.5E-1,1E0,1.4285715E-1,1.7224559E-1,7.291667E-1,1E0,1E0,-2.8766228E-2,-1.5089166E-1,9.382016E-2,-3.1739112E-2,-0E0,1E0,-1.4672701E-1,-0E0,-1.5378466E-1,3.1582052E-1,1.8686874E-1,1.544682E-1,6.25E-1,1.1922578E-1,5.7773896E-2,1.376776E-1,-8.765396E-2,-1.5275793E-1,-1.4119676E-1,-6.800819E-2,1.3935463E-1,1E0,1.6071428E-1,-8.608083E-2,-1.1129268E-1,-1.1759254E-2,1.3937826E-1,1.5599692E-1,1.4005665E-1,3.36165E-2,1.533532E-1,6.3797265E-2,-6.2367212E-2,9.108069E-2],"split_indices":[2,11,9,8,9,11,11,12,9,4,0,12,10,0,0,3,0,0,12,0,0,0,3,4,3,0,3,0,0,0,0,0,0,0,1,9,0,0,0,0,4,0,0,0,0,0,0],"split_type":[0,0,0,0,0,0,0,0,0,0,0,0,0,0,0,0,0,0,0,0,0,0,0,0,0,0,0,0,0,0,0,0,0,0,0,0,0,0,0,0,0,0,0,0,0,0,0],"sum_hessian":[5.390414E1,2.4916689E1,2.8987452E1,1.2004251E1,1.2912439E1,2.6342497E1,2.6449559E0,5.8567524E0,6.147498E0,3.2385898E0,9.673849E0,1.8326752E1,8.015744E0,1.2468314E0,1.3981246E0,4.137417E0,1.7193356E0,2.189919E0,3.9575791E0,1.5899605E0,1.6486292E0,7.192763E0,2.4810867E0,1.4135512E1,4.1912394E0,2.9140909E0,5.1016536E0,1.2635152E0,2.8739016E0,1.2077211E0,2.749858E0,1.3308303E0,1.1502564E0,8.532273E0,5.603239E0,2.5168018E0,1.6744373E0,1.2244011E0,1.6896896E0,1.7024904E0,3.3991632E0,3.1405196E0,2.4627194E0,1.3810885E0,1.1357133E0,1.6140988E0,1.7850645E0],"tree_param":{"num_deleted":"0","num_feature":"13","num_nodes":"47","size_leaf_vector":"1"}},{"base_weights":[-0E0,-6.5653247E-1,5.651898E-1,-8.235419E-2,-1.1883409E0,7.188433E-1,-9.036409E-1,6.623654E-1,-8.010355E-1,-5.409731E-1,-1.3452791E0,1.0180541E0,2.061017E-1,-2.5929853E-2,-1.423219E-1,1.1015329E0,-2.8552521E-2,-0E0,-1.273012E0,-0E0,-1.3321966E-1,-1.4299464E-1,-7.3907025E-2,1.7291717E-2,1.1320857E0,-7.283826E-1,5.708441E-1,5.329842E-2,1.3214464E-1,-8.005334E-2,-1.445962E-1,1.2631369E0,5.972855E-1,-1.319211E-1,-0E0,1.1779659E0,-0E0,5.358159E-2,1.3447885E-1,1.3741475E-1,-0E0,1.4136223E-1,5.4196358E-2,1.0285314E-1,-5.398457E-2],"categories":[],"categories_nodes":[],"categories_segments":[],"categories_sizes":[],"default_left":[0,0,0,0,0,0,0,0,0,0,0,0,0,0,0,0,0,0,0,0,0,0,0,0,0,0,0,0,0,0,0,0,0,0,0,0,0,0,0,0,0,0,0,0,0],"id":6,"left_children":[1,3,5,7,9,11,13,15,17,19,21,23,25,-1,-1,27,-1,-1,29,-1,-1,-1,-1,-1,31,33,35,-1,-1,-1,-1,37,39,-1,-1,41,43,-1,-1,-1,-1,-1,-1,-1,-1],"loss_changes":[1.9315804E1,7.220887E0,6.305788E0,6.2671113E0,1.0642376E0,3.7737122E0,6.96429E-1,2.4451208E0,2.337783E0,1.1483905E0,2.7820206E-1,1.4017887E0,3.2261667E0,0E0,0E0,3.0126476E-1,0E0,0E0,7.622433E-2,0E0,0E0,0E0,0E0,0E0,7.821064E-1,1.2075943E0,2.4326332E0,0E0,0E0,0E0,0E0,4.5930862E-1,1.3822134E0,0E0,0E0,3.0292273E-1,1.960576E0,0E0,0E0,0E0,0E0,0E0,0E0,0E0,0E0],"parents":[2147483647,0,0,1,1,2,2,3,3,4,4,5,5,6,6,7,7,8,8,9,9,10,10,11,11,12,12,15,15,18,18,24,24,25,25,26,26,31,31,32,32,35,35,36,36],"right_children":[2,4,6,8,10,12,14,16,18,20,22,24,26,-1,-1,28,-1,-1,30,-1,-1,-1,-1,-1,32,34,36,-1,-1,-1,-1,38,40,-1,-1,42,44,-1,-1,-1,-1,-1,-1,-1,-1],"split_conditions":[3.3333334E-1,2.5E-1,3.5714287E-1,1E0,1E0,5.833333E-1,2.5E-1,1E0,1.4285715E-1,1E0,1.0405828E-3,4.8245615E-1,6.666667E-1,-2.5929853E-2,-1.423219E-1,9.382016E-2,-2.8552521E-2,-0E0,1E0,-0E0,-1.3321966E-1,-1.4299464E-1,-7.3907025E-2,1.7291717E-2,1E0,6.25E-1,1E0,5.329842E-2,1.3214464E-1,-8.005334E-2,-1.445962E-1,5.701754E-1,6.5789473E-1,-1.319211E-1,-0E0,1.9642857E-1,5.1754385E-1,5.358159E-2,1.3447885E-1,1.3741475E-1,-0E0,1.4136223E-1,5.4196358E-2,1.0285314E-1,-5.398457E-2],"split_indices":[2,11,9,8,1,0,11,12,9,12,5,7,2,0,0,3,0,0,12,0,0,0,0,0,12,0,1,0,0,0,0,7,7,0,0,9,7,0,0,0,0,0,0,0,0],"split_type":[0,0,0,0,0,0,0,0,0,0,0,0,0,0,0,0,0,0,0,0,0,0,0,0,0,0,0,0,0,0,0,0,0,0,0,0,0,0,0,0,0,0,0,0,0],"sum_hessian":[5.2040047E1,2.4057028E1,2.7983017E1,1.1663676E1,1.2393352E1,2.5399208E1,2.583809E0,5.660123E0,6.003553E0,2.551231E0,9.84212E0,1.5910016E1,9.489193E0,1.2460295E0,1.3377793E0,3.9390137E0,1.7211093E0,2.189919E0,3.8136342E0,1.4918172E0,1.0594138E0,8.479296E0,1.3628247E0,1.9987229E0,1.3911293E1,2.58421E0,6.9049826E0,1.2350259E0,2.7039878E0,1.1919258E0,2.6217084E0,1.1012186E1,2.8991075E0,1.4747461E0,1.1094639E0,3.367024E0,3.5379586E0,1.2427341E0,9.769452E0,1.2716084E0,1.6274992E0,2.33309E0,1.0339339E0,1.1951356E0,2.342823E0],"tree_param":{"num_deleted":"0","num_feature":"13","num_nodes":"45","size_leaf_vector":"1"}},{"base_weights":[-0E0,4.8590434E-1,-6.8340313E-1,8.9038527E-1,-3.527724E-1,-1.1396074E0,-5.653303E-2,1.0581688E0,-3.0851114E-1,6.017784E-1,-9.177897E-1,-3.25909E-2,-1.2835662E-1,1.079177E0,-5.2816343E-1,1.2641749E-1,4.2288136E-1,3.4104746E-2,-1.06400214E-1,1.4378063E-3,1.4584354E-1,-4.706511E-3,-1.3533379E0,1.4479813E-1,4.796145E-2,2.4202196E-1,-1.2912039E0,7.8160834E-1,-4.354202E-2,-1.5067898E-1,-8.475267E-2,-5.72381E-2,8.551197E-2,-7.165587E-2,-1.5155216E-1,1.3038644E-1,-0E0],"categories":[],"categories_nodes":[],"categories_segments":[],"categories_sizes":[],"default_left":[0,0,0,0,0,0,0,0,0,0,0,0,0,0,0,0,0,0,0,0,0,0,0,0,0,0,0,0,0,0,0,0,0,0,0,0,0],"id":7,"left_children":[1,3,5,7,9,11,13,15,17,19,21,-1,-1,23,25,-1,27,-1,-1,-1,-1,-1,29,-1,-1,31,33,35,-1,-1,-1,-1,-1,-1,-1,-1,-1],"loss_changes":[1.6651411E1,1.001346E1,5.832567E0,4.0780325E0,5.148099E0,1.2352533E0,4.7019978E0,2.1186466E0,1.2417641E0,1.5955026E0,2.14334E0,0E0,0E0,3.6280656E-1,3.8320007E0,0E0,1.4000335E0,0E0,0E0,0E0,0E0,0E0,5.742216E-2,0E0,0E0,1.5794148E0,1.8485498E-1,1.3038253E0,0E0,0E0,0E0,0E0,0E0,0E0,0E0,0E0,0E0],"parents":[2147483647,0,0,1,1,2,2,3,3,4,4,5,5,6,6,7,7,8,8,9,9,10,10,13,13,14,14,16,16,22,22,25,25,26,26,27,27],"right_children":[2,4,6,8,10,12,14,16,18,20,22,-1,-1,24,26,-1,28,-1,-1,-1,-1,-1,30,-1,-1,32,34,36,-1,-1,-1,-1,-1,-1,-1,-1,-1],"split_conditions":[2.5E-1,1E0,1E0,3.2142857E-1,1.5642123E-1,8.928572E-2,1E0,6.25E-1,1.904882E-1,5.208333E-1,1.4285715E-1,-3.25909E-2,-1.2835662E-1,1.5913592E-1,5.208333E-1,1.2641749E-1,1E0,3.4104746E-2,-1.06400214E-1,1.4378063E-3,1.4584354E-1,-4.706511E-3,3.917749E-1,1.4479813E-1,4.796145E-2,3.3333334E-1,5.614035E-1,6.1403507E-1,-4.354202E-2,-1.5067898E-1,-8.475267E-2,-5.72381E-2,8.551197E-2,-7.165587E-2,-1.5155216E-1,1.3038644E-1,-0E0],"split_indices":[11,12,10,9,4,9,1,0,4,0,9,0,0,3,0,0,8,0,0,0,0,0,4,0,0,2,7,7,0,0,0,0,0,0,0,0,0],"split_type":[0,0,0,0,0,0,0,0,0,0,0,0,0,0,0,0,0,0,0,0,0,0,0,0,0,0,0,0,0,0,0,0,0,0,0,0,0],"sum_hessian":[5.0146038E1,2.934057E1,2.080547E1,1.9874178E1,9.466392E0,1.1944885E1,8.860584E0,1.750848E1,2.3656983E0,3.453815E0,6.0125766E0,1.9049302E0,1.0039955E1,2.5339034E0,6.326681E0,1.3094871E1,4.4136095E0,1.2038069E0,1.1618916E0,2.124185E0,1.3296299E0,2.085011E0,3.9275656E0,1.4568338E0,1.0770696E0,3.0867753E0,3.2399058E0,3.195467E0,1.2181423E0,2.8465066E0,1.081059E0,1.2559729E0,1.8308026E0,1.0465777E0,2.1933281E0,1.9088018E0,1.2866653E0],"tree_param":{"num_deleted":"0","num_feature":"13","num_nodes":"37","size_leaf_vector":"1"}},{"base_weights":[-0E0,-5.926804E-1,5.077727E-1,-2.9403152E-2,-1.0609372E0,6.276266E-1,-1.0449114E-1,5.827101E-1,-7.0189464E-1,-4.2099983E-1,-1.2798497E-1,9.098856E-1,3.6703248E-2,1.0113791E0,-2.5848681E-2,-1.3477854E-1,-2.3263636E-1,-9.2670135E-2,3.479483E-2,1.1004342E0,2.9831493E-1,-1.6389659E-1,1.4489189E-1,4.2962104E-2,1.2487894E-1,3.161795E-2,-1.3485478E-1,1.2933424E-1,7.9103476E-1,-7.569694E-2,1.0596528E0,4.3777815E-1,-7.1836084E-1,1.6914122E-2,1.3060595E-1,1.4193614E-1,5.2936155E-2,1.2354062E-1,-3.1446458E-3,-1.24238126E-1,-9.502799E-3],"categories":[],"categories_nodes":[],"categories_segments":[],"categories_sizes":[],"default_left":[0,0,0,0,0,0,0,0,0,0,0,0,0,0,0,0,0,0,0,0,0,0,0,0,0,0,0,0,0,0,0,0,0,0,0,0,0,0,0,0,0],"id":8,"left_children":[1,3,5,7,9,11,-1,13,15,17,-1,19,21,23,-1,-1,25,-1,-1,27,29,31,-1,-1,-1,-1,-1,-1,33,-1,35,37,39,-1,-1,-1,-1,-1,-1,-1,-1],"loss_changes":[1.4499107E1,5.7474623E0,4.800005E0,4.2094383E0,1.5095472E0,3.9391413E0,0E0,1.9748411E0,1.3350325E0,1.3043503E0,0E0,1.7508831E0,2.3811305E0,3.1925035E-1,0E0,0E0,1.9208944E0,0E0,0E0,5.13299E-1,3.2515378E0,2.333855E0,0E0,0E0,0E0,0E0,0E0,0E0,1.4307866E0,0E0,2.5207663E-1,1.3296416E0,1.067878E0,0E0,0E0,0E0,0E0,0E0,0E0,0E0,0E0],"parents":[2147483647,0,0,1,1,2,2,3,3,4,4,5,5,7,7,8,8,9,9,11,11,12,12,13,13,16,16,19,19,20,20,21,21,28,28,30,30,31,31,32,32],"right_children":[2,4,6,8,10,12,-1,14,16,18,-1,20,22,24,-1,-1,26,-1,-1,28,30,32,-1,-1,-1,-1,-1,-1,34,-1,36,38,40,-1,-1,-1,-1,-1,-1,-1,-1],"split_conditions":[3.3333334E-1,1E0,4.2857143E-1,2.5E-1,1.4285715E-1,2.5E-1,-1.0449114E-1,1E0,1.9097687E-1,2.460738E-1,-1.2798497E-1,1E0,7.916667E-1,9.382016E-2,-2.5848681E-2,-1.3477854E-1,3.544442E-1,-9.2670135E-2,3.479483E-2,1.904882E-1,5.5263156E-1,5.416667E-1,1.4489189E-1,4.2962104E-2,1.2487894E-1,3.161795E-2,-1.3485478E-1,1.2933424E-1,1.5554574E-1,-7.569694E-2,1.6071428E-1,1.1922578E-1,6.458333E-1,1.6914122E-2,1.3060595E-1,1.4193614E-1,5.2936155E-2,1.2354062E-1,-3.1446458E-3,-1.24238126E-1,-9.502799E-3],"split_indices":[2,8,9,11,9,11,0,12,4,4,0,12,0,3,0,0,3,0,0,4,7,0,0,0,0,0,0,0,3,0,9,3,0,0,0,0,0,0,0,0,0],"split_type":[0,0,0,0,0,0,0,0,0,0,0,0,0,0,0,0,0,0,0,0,0,0,0,0,0,0,0,0,0,0,0,0,0,0,0,0,0,0,0,0,0],"sum_hessian":[4.816746E1,2.21952E1,2.597226E1,1.0177104E1,1.2018096E1,2.417641E1,1.7958494E0,5.2505755E0,4.926529E0,3.1871817E0,8.8309145E0,1.6243132E1,7.9332795E0,3.555545E0,1.6950302E0,1.9755471E0,2.9509819E0,1.999922E0,1.1872598E0,1.2253707E1,3.9894235E0,6.8922853E0,1.0409942E0,1.1606809E0,2.3948643E0,1.9228563E0,1.0281254E0,7.329075E0,4.9246325E0,1.6169256E0,2.372498E0,3.2199352E0,3.6723502E0,2.3248365E0,2.599796E0,1.2912633E0,1.0812346E0,1.2655072E0,1.9544281E0,1.902558E0,1.7697923E0],"tree_param":{"num_deleted":"0","num_feature":"13","num_nodes":"41","size_leaf_vector":"1"}},{"base_weights":[-0E0,-5.570297E-1,4.7806144E-1,-2.6592717E-2,-1.0016788E0,6.1189467E-1,-7.4389577E-1,5.461777E-1,-6.559036E-1,-3.7878168E-1,-1.22581996E-1,8.506056E-1,1.0580589E-1,-1.3403867E-1,-2.2150613E-2,9.673267E-1,-2.3276916E-2,-1.2951605E-1,-2.1063304E-1,-8.438874E-2,3.134789E-2,9.894126E-1,6.5091275E-2,-4.1934982E-1,4.5873046E-1,1.2094357E-1,3.8653325E-2,6.907957E-2,-8.3349034E-2,1.0680832E0,-0E0,-7.3547564E-2,7.7790335E-2,-0E0,-8.83938E-2,1.2113207E-1,9.720232E-2,8.704878E-2,1.3002162E-1,-5.776408E-2,7.841303E-2],"categories":[],"categories_nodes":[],"categories_segments":[],"categories_sizes":[],"default_left":[0,0,0,0,0,0,0,0,0,0,0,0,0,0,0,0,0,0,0,0,0,0,0,0,0,0,0,0,0,0,0,0,0,0,0,0,0,0,0,0,0],"id":9,"left_children":[1,3,5,7,9,11,13,15,17,19,-1,21,23,-1,-1,25,-1,-1,27,-1,-1,29,31,33,35,-1,-1,-1,-1,37,-1,-1,-1,-1,-1,-1,39,-1,-1,-1,-1],"loss_changes":[1.232704E1,4.9278145E0,4.0763006E0,3.5612519E0,1.4405727E0,2.632782E0,5.8757496E-1,1.7400771E0,1.2061832E0,1.0782083E0,0E0,1.5529308E0,1.3748822E0,0E0,0E0,3.1077075E-1,0E0,0E0,1.6591372E0,0E0,0E0,9.120846E-1,1.3817234E0,5.917906E-1,1.1022279E0,0E0,0E0,0E0,0E0,3.1294918E-1,0E0,0E0,0E0,0E0,0E0,0E0,1.4923441E0,0E0,0E0,0E0,0E0],"parents":[2147483647,0,0,1,1,2,2,3,3,4,4,5,5,6,6,7,7,8,8,9,9,11,11,12,12,15,15,18,18,21,21,22,22,23,23,24,24,29,29,36,36],"right_children":[2,4,6,8,10,12,14,16,18,20,-1,22,24,-1,-1,26,-1,-1,28,-1,-1,30,32,34,36,-1,-1,-1,-1,38,-1,-1,-1,-1,-1,-1,40,-1,-1,-1,-1],"split_conditions":[3.3333334E-1,1E0,3.5714287E-1,2.5E-1,1.4285715E-1,2.5E-1,5.263158E-1,1E0,1.9097687E-1,2.460738E-1,-1.22581996E-1,2.7204797E-1,1E0,-1.3403867E-1,-2.2150613E-2,6.458333E-1,-2.3276916E-2,-1.2951605E-1,1.6712835E-1,-8.438874E-2,3.134789E-2,7.291667E-1,3.4669614E-1,8.928572E-2,1.1922578E-1,1.2094357E-1,3.8653325E-2,6.907957E-2,-8.3349034E-2,1.01963185E-1,-0E0,-7.3547564E-2,7.7790335E-2,-0E0,-8.83938E-2,1.2113207E-1,1.5599692E-1,8.704878E-2,1.3002162E-1,-5.776408E-2,7.841303E-2],"split_indices":[2,8,9,11,9,11,7,12,4,4,0,4,10,0,0,0,0,0,3,0,0,0,4,9,3,0,0,0,0,3,0,0,0,0,0,0,4,0,0,0,0],"split_type":[0,0,0,0,0,0,0,0,0,0,0,0,0,0,0,0,0,0,0,0,0,0,0,0,0,0,0,0,0,0,0,0,0,0,0,0,0,0,0,0,0],"sum_hessian":[4.6288723E1,2.1320211E1,2.4968512E1,9.829619E0,1.1490592E1,2.2582067E1,2.3864431E0,5.0634823E0,4.7661366E0,3.1657872E0,8.324804E0,1.5205546E1,7.3765216E0,1.0175109E0,1.3689321E0,3.368314E0,1.6951683E0,1.8567728E0,2.9093637E0,1.9786592E0,1.1871282E0,1.2811708E1,2.3938384E0,2.8501854E0,4.526336E0,2.2481503E0,1.1201638E0,1.1227808E0,1.7865832E0,1.1791992E1,1.0197167E0,1.0612875E0,1.3325508E0,1.4590572E0,1.3911281E0,1.3713984E0,3.1549377E0,6.6282244E0,5.1637673E0,1.5188367E0,1.6361011E0],"tree_param":{"num_deleted":"0","num_feature":"13","num_nodes":"41","size_leaf_vector":"1"}}]},"name":"gbtree"},"learner_model_param":{"base_score":"[5.495868E-1]","boost_from_average":"1","num_class":"0","num_feature":"13","num_target":"1"},"objective":{"name":"binary:logistic","reg_loss_param":{"scale_pos_weight":"1"}}},"version":[3,1,0]}